<?xml version="1.0"?>
<opencv_storage>
<cascade>
  <stageType>BOOST</stageType>
  <featureType>LBP</featureType>
  <height>40</height>
  <width>80</width>
  <stageParams>
    <boostType>GAB</boostType>
    <minHitRate>9.9900001287460327e-01</minHitRate>
    <maxFalseAlarm>5.0000000000000000e-01</maxFalseAlarm>
    <weightTrimRate>9.4999999999999996e-01</weightTrimRate>
    <maxDepth>1</maxDepth>
    <maxWeakCount>100</maxWeakCount></stageParams>
  <featureParams>
    <maxCatCount>256</maxCatCount>
    <featSize>1</featSize></featureParams>
  <stageNum>20</stageNum>
  <stages>
    <!-- stage 0 -->
    <_>
      <maxWeakCount>3</maxWeakCount>
      <stageThreshold>-9.9524611234664917e-01</stageThreshold>
      <weakClassifiers>
        <_>
          <internalNodes>
            0 -1 38 286331217 959779184 1367458781 -70937665 218681759
            973095040 -668259345 -72377681</internalNodes>
          <leafValues>
            -9.3228536844253540e-01 8.1174278259277344e-01</leafValues></_>
        <_>
          <internalNodes>
            0 -1 5 -805054983 -74103543 269551639 -248442447 -796868101
            -120581984 -1878941013 -250379333</internalNodes>
          <leafValues>
            -8.2487940788269043e-01 8.7753474712371826e-01</leafValues></_>
        <_>
          <internalNodes>
            0 -1 33 1897397719 -40652023 1359302929 -35823335 -804734837
            -1467481074 18960923 1057989135</internalNodes>
          <leafValues>
            -8.8636648654937744e-01 7.6191866397857666e-01</leafValues></_></weakClassifiers></_>
    <!-- stage 1 -->
    <_>
      <maxWeakCount>3</maxWeakCount>
      <stageThreshold>-1.1532515287399292e+00</stageThreshold>
      <weakClassifiers>
        <_>
          <internalNodes>
            0 -1 13 -773721089 -615540529 -1038936101 -44701803
            -696189957 1379991707 -251466833 2080326635</internalNodes>
          <leafValues>
            -9.3258428573608398e-01 7.7070063352584839e-01</leafValues></_>
        <_>
          <internalNodes>
            0 -1 34 -170656257 -579611243 -1792650881 -183381033
            -728588101 -1463254903 1073802239 1433655791</internalNodes>
          <leafValues>
            -9.1829198598861694e-01 5.8287453651428223e-01</leafValues></_>
        <_>
          <internalNodes>
            0 -1 1 -237635617 -182607424 1431306366 -1514012478
            -92161383 -125132631 -276738869 -541127973</internalNodes>
          <leafValues>
            -7.4986195564270020e-01 6.9762474298477173e-01</leafValues></_></weakClassifiers></_>
    <!-- stage 2 -->
    <_>
      <maxWeakCount>3</maxWeakCount>
      <stageThreshold>-9.5411282777786255e-01</stageThreshold>
      <weakClassifiers>
        <_>
          <internalNodes>
            0 -1 58 27463707 -1253632255 1426128989 -14481005 11239851
            -1465286528 -1456891649 -2110513</internalNodes>
          <leafValues>
            -8.3741933107376099e-01 6.6577780246734619e-01</leafValues></_>
        <_>
          <internalNodes>
            0 -1 4 -251137078 -1954381568 -2130623918 -1123954686
            -1205737335 -632684536 -1996234517 -36710077</internalNodes>
          <leafValues>
            -7.5200676918029785e-01 7.3186743259429932e-01</leafValues></_>
        <_>
          <internalNodes>
            0 -1 72 -611584086 -1283226732 117473536 419689992
            -1862038849 -643674097 1895943035 -616040261</internalNodes>
          <leafValues>
            -8.2164663076400757e-01 6.3531333208084106e-01</leafValues></_></weakClassifiers></_>
    <!-- stage 3 -->
    <_>
      <maxWeakCount>3</maxWeakCount>
      <stageThreshold>-9.6570736169815063e-01</stageThreshold>
      <weakClassifiers>
        <_>
          <internalNodes>
            0 -1 18 -744491521 -69873069 356663575 -619197741 -351549745
            -561440312 -363855873 2147479279</internalNodes>
          <leafValues>
            -8.0653268098831177e-01 6.7210143804550171e-01</leafValues></_>
        <_>
          <internalNodes>
            0 -1 97 -236465276 -715796155 1342427346 -108858850
            -1711038328 -1070981118 -2004712824 -1427113301</internalNodes>
          <leafValues>
            -7.9805630445480347e-01 6.0715246200561523e-01</leafValues></_>
        <_>
          <internalNodes>
            0 -1 49 -574107137 -183504737 16876314 -1088974823
            -610292824 -272793396 294363563 -1347701829</internalNodes>
          <leafValues>
            -7.3433369398117065e-01 6.3888156414031982e-01</leafValues></_></weakClassifiers></_>
    <!-- stage 4 -->
    <_>
      <maxWeakCount>4</maxWeakCount>
      <stageThreshold>-1.6798833608627319e+00</stageThreshold>
      <weakClassifiers>
        <_>
          <internalNodes>
            0 -1 46 -665726509 -128904745 -754430689 -2256739 -92235267
            -1326409551 -116795205 10477275</internalNodes>
          <leafValues>
            -8.5734665393829346e-01 5.8465385437011719e-01</leafValues></_>
        <_>
          <internalNodes>
            0 -1 24 -204478268 -1072454774 1073758234 -720306088
            -780007196 1795244035 -243072886 -5289778</internalNodes>
          <leafValues>
            -8.0035835504531860e-01 5.8285468816757202e-01</leafValues></_>
        <_>
          <internalNodes>
            0 -1 48 -776209392 823313680 269288735 491504901 -964440646
            -1684991600 -1730106983 -3422195</internalNodes>
          <leafValues>
            -8.1595575809478760e-01 4.9740228056907654e-01</leafValues></_>
        <_>
          <internalNodes>
            0 -1 76 -1877229338 -687763455 696362766 -1794010877
            -1065180598 -243171184 -264179814 -350229845</internalNodes>
          <leafValues>
            -6.4822316169738770e-01 7.1140170097351074e-01</leafValues></_></weakClassifiers></_>
    <!-- stage 5 -->
    <_>
      <maxWeakCount>4</maxWeakCount>
      <stageThreshold>-1.6573489904403687e+00</stageThreshold>
      <weakClassifiers>
        <_>
          <internalNodes>
            0 -1 54 -1315368517 2002456667 9192235 -813367289 294763451
            -1145896773 -1442344565 -5248085</internalNodes>
          <leafValues>
            -7.3350256681442261e-01 6.0971224308013916e-01</leafValues></_>
        <_>
          <internalNodes>
            0 -1 37 -687102945 -7322037 -986510049 -48811697 50436267
            -80500689 -2071098945 1432853679</internalNodes>
          <leafValues>
            -9.0412545204162598e-01 5.0800114870071411e-01</leafValues></_>
        <_>
          <internalNodes>
            0 -1 6 -238049302 561227812 184631686 -158138294 -517999621
            2047017356 -618145494 -88087741</internalNodes>
          <leafValues>
            -7.0436614751815796e-01 5.7599776983261108e-01</leafValues></_>
        <_>
          <internalNodes>
            0 -1 67 -800800519 1410433409 16779910 -711491437
            -1065301816 -938901343 437029512 1864338335</internalNodes>
          <leafValues>
            -7.2748142480850220e-01 5.6811922788619995e-01</leafValues></_></weakClassifiers></_>
    <!-- stage 6 -->
    <_>
      <maxWeakCount>5</maxWeakCount>
      <stageThreshold>-9.9458843469619751e-01</stageThreshold>
      <weakClassifiers>
        <_>
          <internalNodes>
            0 -1 7 -110887425 -872156533 -1537928739 -78184179
            -126091329 -909499774 1619202491 1534020510</internalNodes>
          <leafValues>
            -8.4776121377944946e-01 5.4308944940567017e-01</leafValues></_>
        <_>
          <internalNodes>
            0 -1 99 1969080132 1418920649 -2130112165 -681897773
            -1034714488 -124747648 -636764020 -288622337</internalNodes>
          <leafValues>
            -6.6406548023223877e-01 5.9002232551574707e-01</leafValues></_>
        <_>
          <internalNodes>
            0 -1 47 -250357480 -1147607651 1359026269 520589577
            1896462779 -1467316005 -1987577223 -7352181</internalNodes>
          <leafValues>
            -7.2749674320220947e-01 5.2848243713378906e-01</leafValues></_>
        <_>
          <internalNodes>
            0 -1 21 774350219 25865902 -1363181633 -1081290833 222265342
            -827949090 779016079 -1963997609</internalNodes>
          <leafValues>
            -6.0458421707153320e-01 6.7590773105621338e-01</leafValues></_>
        <_>
          <internalNodes>
            0 -1 52 -536922657 -788147952 -2147401519 -234434039
            135150522 318841760 809585823 -877666101</internalNodes>
          <leafValues>
            -7.1271598339080811e-01 5.9334003925323486e-01</leafValues></_></weakClassifiers></_>
    <!-- stage 7 -->
    <_>
      <maxWeakCount>6</maxWeakCount>
      <stageThreshold>-7.7897143363952637e-01</stageThreshold>
      <weakClassifiers>
        <_>
          <internalNodes>
            0 -1 36 26292735 456218578 -582357633 -35671205 1000163551
            462244168 -1081222432 -6559352</internalNodes>
          <leafValues>
            -8.0910426378250122e-01 5.3404432535171509e-01</leafValues></_>
        <_>
          <internalNodes>
            0 -1 75 -778044517 -750218152 285557713 -7331760 -788436229
            1076937352 -301739045 2076956895</internalNodes>
          <leafValues>
            -7.0235580205917358e-01 5.4724359512329102e-01</leafValues></_>
        <_>
          <internalNodes>
            0 -1 27 -821966046 -307638014 520602598 -539508670
            -1605198595 -13989712 -352091653 -1078485817</internalNodes>
          <leafValues>
            -7.1354866027832031e-01 5.5025237798690796e-01</leafValues></_>
        <_>
          <internalNodes>
            0 -1 8 -447298578 1364409414 606736666 -733371646 1074125055
            -309788544 -1398026191 -536872169</internalNodes>
          <leafValues>
            -7.4326604604721069e-01 5.7068943977355957e-01</leafValues></_>
        <_>
          <internalNodes>
            0 -1 90 -479468570 1930135043 25363200 -1014394649
            -1581900476 -58519327 -659650404 -52442373</internalNodes>
          <leafValues>
            -7.9525405168533325e-01 4.7630152106285095e-01</leafValues></_>
        <_>
          <internalNodes>
            0 -1 53 -75497985 1393624761 874611447 -847909545 1527091380
            1427161345 -2013001688 2136464267</internalNodes>
          <leafValues>
            -7.9330885410308838e-01 4.6340239048004150e-01</leafValues></_></weakClassifiers></_>
    <!-- stage 8 -->
    <_>
      <maxWeakCount>5</maxWeakCount>
      <stageThreshold>-1.1006579399108887e+00</stageThreshold>
      <weakClassifiers>
        <_>
          <internalNodes>
            0 -1 60 596181275 -14740205 1229101389 -209628143
            -1597387618 -269516661 -1186749989 -3290934</internalNodes>
          <leafValues>
            -6.7959952354431152e-01 5.8401453495025635e-01</leafValues></_>
        <_>
          <internalNodes>
            0 -1 39 293523967 285409808 -784210987 1360277635 178782410
            1071165610 8487133 -6234950</internalNodes>
          <leafValues>
            -6.9917577505111694e-01 5.2457702159881592e-01</leafValues></_>
        <_>
          <internalNodes>
            0 -1 100 -477434914 -204823838 -2130489038 -1852813308
            -2121013077 -2129573312 -1581000050 -1565861910</internalNodes>
          <leafValues>
            -7.2324305772781372e-01 4.9963989853858948e-01</leafValues></_>
        <_>
          <internalNodes>
            0 -1 11 -653790218 -2125954295 1108971986 -774176510
            -930577859 59279593 -1606915710 -270835961</internalNodes>
          <leafValues>
            -7.4284809827804565e-01 5.1516878604888916e-01</leafValues></_>
        <_>
          <internalNodes>
            0 -1 93 -347125652 -681742305 104656 -147500653 270627408
            -385306495 -218052388 -1075581989</internalNodes>
          <leafValues>
            -6.9329428672790527e-01 4.8619157075881958e-01</leafValues></_></weakClassifiers></_>
    <!-- stage 9 -->
    <_>
      <maxWeakCount>6</maxWeakCount>
      <stageThreshold>-1.1355705261230469e+00</stageThreshold>
      <weakClassifiers>
        <_>
          <internalNodes>
            0 -1 0 -170295132 -652722155 396541 -15400685 -2488580
            -610655750 168299755 -67933249</internalNodes>
          <leafValues>
            -7.2485208511352539e-01 4.8202612996101379e-01</leafValues></_>
        <_>
          <internalNodes>
            0 -1 80 -9043969 -625807446 -36993 -542233438 -764280833
            -1170538497 -1 -1069313</internalNodes>
          <leafValues>
            -4.6682468056678772e-01 7.3496633768081665e-01</leafValues></_>
        <_>
          <internalNodes>
            0 -1 77 -1727047433 -201783919 1090607577 -581631921
            -1316112384 -921526208 -914310438 1539277547</internalNodes>
          <leafValues>
            -5.5932593345642090e-01 5.9895378351211548e-01</leafValues></_>
        <_>
          <internalNodes>
            0 -1 81 -771520505 -182204413 -1606172559 -166493685
            -116080057 -514359294 -800437265 -184302917</internalNodes>
          <leafValues>
            -5.3412789106369019e-01 6.7615228891372681e-01</leafValues></_>
        <_>
          <internalNodes>
            0 -1 96 -773861666 -7105953 1099030591 -1682861749 692782216
            -1607991157 -897332562 -22701409</internalNodes>
          <leafValues>
            -6.3422507047653198e-01 5.7758992910385132e-01</leafValues></_>
        <_>
          <internalNodes>
            0 -1 9 -212817694 1360379916 -1073167744 -590476790
            -938834707 -1199472477 -905215393 -426783286</internalNodes>
          <leafValues>
            -5.8477485179901123e-01 5.9446114301681519e-01</leafValues></_></weakClassifiers></_>
    <!-- stage 10 -->
    <_>
      <maxWeakCount>6</maxWeakCount>
      <stageThreshold>-1.7191476821899414e+00</stageThreshold>
      <weakClassifiers>
        <_>
          <internalNodes>
            0 -1 41 1342303199 1347633707 1140935583 1561211498
            -641468939 1514247301 -209615643 399209155</internalNodes>
          <leafValues>
            -7.2330826520919800e-01 4.7044533491134644e-01</leafValues></_>
        <_>
          <internalNodes>
            0 -1 85 1381225439 -894771108 -1669246758 -1115903084
            1485235182 -658587469 -81067846 1606400651</internalNodes>
          <leafValues>
            -7.0133692026138306e-01 4.6047541499137878e-01</leafValues></_>
        <_>
          <internalNodes>
            0 -1 57 -2129854189 -111212272 -1355459467 1570316317
            -1450472477 -372553727 -2001726552 -817628967</internalNodes>
          <leafValues>
            -6.4874005317687988e-01 4.6820968389511108e-01</leafValues></_>
        <_>
          <internalNodes>
            0 -1 14 109307790 -2130013974 -1056685995 -1148075623
            -754736705 1502642824 -1876587521 -1064582509</internalNodes>
          <leafValues>
            -6.1103647947311401e-01 5.6426161527633667e-01</leafValues></_>
        <_>
          <internalNodes>
            0 -1 32 1907422197 939728467 -1453325091 -736591848
            111961342 1060835646 -1954510695 -35241845</internalNodes>
          <leafValues>
            -6.9100773334503174e-01 4.7022983431816101e-01</leafValues></_>
        <_>
          <internalNodes>
            0 -1 101 -711642238 -241229813 1082605772 -276704338
            -609162808 1042874372 -100162684 -287840257</internalNodes>
          <leafValues>
            -6.8025380373001099e-01 4.7591799497604370e-01</leafValues></_></weakClassifiers></_>
    <!-- stage 11 -->
    <_>
      <maxWeakCount>7</maxWeakCount>
      <stageThreshold>-1.0443599224090576e+00</stageThreshold>
      <weakClassifiers>
        <_>
          <internalNodes>
            0 -1 56 329318875 2138512253 -1073687727 -37009347
            -1952730981 -276053879 -1232749942 -87064417</internalNodes>
          <leafValues>
            -6.9874477386474609e-01 5.0803041458129883e-01</leafValues></_>
        <_>
          <internalNodes>
            0 -1 73 857177471 492014003 21040923 319242905 1426147972
            1058898065 2055397832 2080324351</internalNodes>
          <leafValues>
            -6.6634649038314819e-01 4.9986752867698669e-01</leafValues></_>
        <_>
          <internalNodes>
            0 -1 95 -682820612 -1783712180 894282168 -1819555544
            -791420785 -671055543 -645686645 -1615332439</internalNodes>
          <leafValues>
            -6.5453821420669556e-01 4.8787826299667358e-01</leafValues></_>
        <_>
          <internalNodes>
            0 -1 17 -649576098 -2095479737 1207976084 9937026
            -1997909281 -2138931194 -469606162 -358421886</internalNodes>
          <leafValues>
            -6.4902681112289429e-01 5.0769293308258057e-01</leafValues></_>
        <_>
          <internalNodes>
            0 -1 62 -121515851 2065254805 -2096887373 1665237014
            -803698452 -108228327 -1911781238 1874833999</internalNodes>
          <leafValues>
            -6.6374456882476807e-01 4.8575246334075928e-01</leafValues></_>
        <_>
          <internalNodes>
            0 -1 29 -590491915 66487827 135316537 -686493217 -530235156
            -801095672 -905536646 -81073317</internalNodes>
          <leafValues>
            -5.6375545263290405e-01 6.3998430967330933e-01</leafValues></_>
        <_>
          <internalNodes>
            0 -1 10 -1603365270 715399814 -1072688827 -175124342
            1348649363 -804192253 -2117936985 -1069810917</internalNodes>
          <leafValues>
            -6.4385694265365601e-01 5.5819517374038696e-01</leafValues></_></weakClassifiers></_>
    <!-- stage 12 -->
    <_>
      <maxWeakCount>6</maxWeakCount>
      <stageThreshold>-7.6997697353363037e-01</stageThreshold>
      <weakClassifiers>
        <_>
          <internalNodes>
            0 -1 79 -178261001 69224886 1124864285 -1347530742
            -637326997 203294931 -812670789 213835662</internalNodes>
          <leafValues>
            -8.0952382087707520e-01 4.1935482621192932e-01</leafValues></_>
        <_>
          <internalNodes>
            0 -1 69 -2124053989 -1120019427 -822024931 -37137075
            -1996191277 -1347936255 -1435988229 1801183754</internalNodes>
          <leafValues>
            -6.7104512453079224e-01 4.3377017974853516e-01</leafValues></_>
        <_>
          <internalNodes>
            0 -1 92 -158796912 -1684872004 -376940655 -1786672752
            -2078035221 -609451904 1210608152 -537869818</internalNodes>
          <leafValues>
            -6.3891589641571045e-01 4.7624605894088745e-01</leafValues></_>
        <_>
          <internalNodes>
            0 -1 98 -715451497 -549387996 -1073643388 -834332762
            -204754876 -382533629 -1600934740 -420741777</internalNodes>
          <leafValues>
            -6.0266214609146118e-01 5.2500343322753906e-01</leafValues></_>
        <_>
          <internalNodes>
            0 -1 84 -1861723433 -1155930147 -1795010151 949159141
            -1328503735 -1199554552 -1539227518 1936669831</internalNodes>
          <leafValues>
            -7.5629895925521851e-01 3.8393226265907288e-01</leafValues></_>
        <_>
          <internalNodes>
            0 -1 20 80841135 558866959 1360007187 1480741448 1342237354
            -2113798010 1744871474 -901583194</internalNodes>
          <leafValues>
            -6.5173947811126709e-01 4.9088844656944275e-01</leafValues></_></weakClassifiers></_>
    <!-- stage 13 -->
    <_>
      <maxWeakCount>6</maxWeakCount>
      <stageThreshold>-1.5718593597412109e+00</stageThreshold>
      <weakClassifiers>
        <_>
          <internalNodes>
            0 -1 44 -146412067 -170555947 -175056511 -719994483
            -796425302 -642215784 -1691370998 -1416913525</internalNodes>
          <leafValues>
            -5.9509199857711792e-01 5.3917050361633301e-01</leafValues></_>
        <_>
          <internalNodes>
            0 -1 86 -634433526 -136806115 1442846134 1574293846
            302088259 -1839726452 1619889070 1532479179</internalNodes>
          <leafValues>
            -7.7610331773757935e-01 3.8898000121116638e-01</leafValues></_>
        <_>
          <internalNodes>
            0 -1 70 49960023 -1307195363 1224806719 2087577817
            -211766551 -1191171968 -90062913 -193862989</internalNodes>
          <leafValues>
            -6.1294293403625488e-01 4.9973881244659424e-01</leafValues></_>
        <_>
          <internalNodes>
            0 -1 105 -587093592 -212606948 1078005793 -1981693659
            1879732771 1132497040 1138094512 -170596672</internalNodes>
          <leafValues>
            -6.2637799978256226e-01 5.0759768486022949e-01</leafValues></_>
        <_>
          <internalNodes>
            0 -1 23 -2016977157 -150863473 320939827 -8680542
            -1902630776 -1198882141 858235128 1884005161</internalNodes>
          <leafValues>
            -6.8036860227584839e-01 4.3077743053436279e-01</leafValues></_>
        <_>
          <internalNodes>
            0 -1 22 84854659 1300554950 -1325326129 -1449561637
            1643368683 -897914469 -511593573 -571536521</internalNodes>
          <leafValues>
            -5.8003348112106323e-01 5.2196466922760010e-01</leafValues></_></weakClassifiers></_>
    <!-- stage 14 -->
    <_>
      <maxWeakCount>6</maxWeakCount>
      <stageThreshold>-5.5679559707641602e-01</stageThreshold>
      <weakClassifiers>
        <_>
          <internalNodes>
            0 -1 63 -1323576943 -1077297065 1346851285 -678825850
            -1148675665 -1979150261 -909672303 301422083</internalNodes>
          <leafValues>
            -5.8717948198318481e-01 4.9821427464485168e-01</leafValues></_>
        <_>
          <internalNodes>
            0 -1 104 -774644309 68801169 1611663936 -1394296120
            -2113162571 -142245236 -1702758234 -67379027</internalNodes>
          <leafValues>
            -6.3028001785278320e-01 4.6464678645133972e-01</leafValues></_>
        <_>
          <internalNodes>
            0 -1 65 -117906059 -51314713 -16828417 -135177 -33720331
            -16908289 -163841 -185212937</internalNodes>
          <leafValues>
            -5.4733550548553467e-01 5.5855745077133179e-01</leafValues></_>
        <_>
          <internalNodes>
            0 -1 94 -880213431 -114093998 -1069534740 -2055139327
            725711688 -1851252734 -1314740672 -13894961</internalNodes>
          <leafValues>
            -5.7069331407546997e-01 5.4775738716125488e-01</leafValues></_>
        <_>
          <internalNodes>
            0 -1 68 -765745921 -1325367259 75514096 -945094649
            -1852261900 -1117782015 -1970741844 1531102684</internalNodes>
          <leafValues>
            -7.3410111665725708e-01 4.3007376790046692e-01</leafValues></_>
        <_>
          <internalNodes>
            0 -1 50 -1055846141 -704568811 1570592095 -583702655
            141247992 -123555488 -670370598 1493029517</internalNodes>
          <leafValues>
            -7.7341973781585693e-01 3.8065075874328613e-01</leafValues></_></weakClassifiers></_>
    <!-- stage 15 -->
    <_>
      <maxWeakCount>7</maxWeakCount>
      <stageThreshold>-1.1508613824844360e+00</stageThreshold>
      <weakClassifiers>
        <_>
          <internalNodes>
            0 -1 42 1600406676 -108961405 -1862221283 -773610973
            -745652040 -1333067776 -998102294 -15841144</internalNodes>
          <leafValues>
            -6.6517192125320435e-01 4.4272950291633606e-01</leafValues></_>
        <_>
          <internalNodes>
            0 -1 71 -182779105 825295315 -2146901813 555807374
            -775028012 294387715 1230044106 -85267729</internalNodes>
          <leafValues>
            -5.9176576137542725e-01 4.4569683074951172e-01</leafValues></_>
        <_>
          <internalNodes>
            0 -1 15 -2016444389 1187352995 -1878970345 -524095006
            27519419 -1845297152 1622544874 -1018170657</internalNodes>
          <leafValues>
            -5.2165096998214722e-01 5.2933621406555176e-01</leafValues></_>
        <_>
          <internalNodes>
            0 -1 88 -1937063717 -275774056 272779651 -1076752172
            -1995964277 671219718 570917387 1828667744</internalNodes>
          <leafValues>
            -7.2650593519210815e-01 4.2733719944953918e-01</leafValues></_>
        <_>
          <internalNodes>
            0 -1 51 839930547 -1258285935 118109 1999880285 411566137
            -1086779120 1369147611 -225957221</internalNodes>
          <leafValues>
            -6.1687541007995605e-01 4.6177864074707031e-01</leafValues></_>
        <_>
          <internalNodes>
            0 -1 102 -1311181895 -1845434232 -2013085551 -1249120111
            -2147480941 -1711046455 27443718 -1950379843</internalNodes>
          <leafValues>
            -6.2116521596908569e-01 4.4696530699729919e-01</leafValues></_>
        <_>
          <internalNodes>
            0 -1 106 -1206956541 -1035926428 268730460 -1320742910
            682244 1258818058 1076576261 -208410286</internalNodes>
          <leafValues>
            -6.6241216659545898e-01 5.0044840574264526e-01</leafValues></_></weakClassifiers></_>
    <!-- stage 16 -->
    <_>
      <maxWeakCount>7</maxWeakCount>
      <stageThreshold>-1.3350329399108887e+00</stageThreshold>
      <weakClassifiers>
        <_>
          <internalNodes>
            0 -1 64 -1607892989 -1996420735 1879429399 -682962855
            -1206288374 -1651867480 -1283357049 -672151377</internalNodes>
          <leafValues>
            -6.4564561843872070e-01 4.2949756979942322e-01</leafValues></_>
        <_>
          <internalNodes>
            0 -1 12 -495524185 -531741938 1408508190 -795679966
            -777354369 -114228860 -1563954181 -727192889</internalNodes>
          <leafValues>
            -5.4993945360183716e-01 4.7215750813484192e-01</leafValues></_>
        <_>
          <internalNodes>
            0 -1 82 -4980737 -98406605 -257 -1104540118 2146697215
            -1305280513 -1 -72634881</internalNodes>
          <leafValues>
            -5.0260251760482788e-01 5.5567210912704468e-01</leafValues></_>
        <_>
          <internalNodes>
            0 -1 2 -265235015 -520060864 402778463 520834509 -2147441998
            -2004025186 -897519921 1878655215</internalNodes>
          <leafValues>
            -8.0035930871963501e-01 4.2252588272094727e-01</leafValues></_>
        <_>
          <internalNodes>
            0 -1 31 -277527315 -1929258492 1342229791 -998124512
            -805304168 17008138 -752303462 -77410098</internalNodes>
          <leafValues>
            -6.2422877550125122e-01 4.2124971747398376e-01</leafValues></_>
        <_>
          <internalNodes>
            0 -1 74 -1862168133 -737111727 -1609232048 -8251006
            134316219 1283465224 -1979541477 1001120443</internalNodes>
          <leafValues>
            -7.0686471462249756e-01 3.8731622695922852e-01</leafValues></_>
        <_>
          <internalNodes>
            0 -1 103 -792438731 -650047231 27 1536311569 -1303129419
            319012864 -2105290621 -1361393181</internalNodes>
          <leafValues>
            -6.7994499206542969e-01 4.4954890012741089e-01</leafValues></_></weakClassifiers></_>
    <!-- stage 17 -->
    <_>
      <maxWeakCount>6</maxWeakCount>
      <stageThreshold>-1.3780524730682373e+00</stageThreshold>
      <weakClassifiers>
        <_>
          <internalNodes>
            0 -1 28 1498807293 1083107330 285364828 -649130482
            -519846987 -261766651 -1073096316 -73708217</internalNodes>
          <leafValues>
            -5.9500694274902344e-01 4.4868531823158264e-01</leafValues></_>
        <_>
          <internalNodes>
            0 -1 66 -2077667147 -736425341 -2113189877 -1138933641
            -360212271 -1098741598 -1725656921 -185358185</internalNodes>
          <leafValues>
            -6.1446946859359741e-01 4.3269771337509155e-01</leafValues></_>
        <_>
          <internalNodes>
            0 -1 59 -1022253249 -1861057223 84331988 -16769012
            -888845832 -2007465798 -2041533457 1370095806</internalNodes>
          <leafValues>
            -6.9576764106750488e-01 3.7711921334266663e-01</leafValues></_>
        <_>
          <internalNodes>
            0 -1 43 1436540895 2133131297 -1943895771 2099396616 4328127
            -1987503991 277448843 1602133644</internalNodes>
          <leafValues>
            -5.1996773481369019e-01 5.6501114368438721e-01</leafValues></_>
        <_>
          <internalNodes>
            0 -1 16 -490215441 -1945267953 470171781 1355882643
            -1328946808 184549888 1625918114 -978857269</internalNodes>
          <leafValues>
            -5.0446796417236328e-01 5.3706204891204834e-01</leafValues></_>
        <_>
          <internalNodes>
            0 -1 35 -376519149 -1072791522 -1857748410 -642743104
            -2133098082 8947724 1359974429 -100816325</internalNodes>
          <leafValues>
            -5.6842672824859619e-01 5.0543296337127686e-01</leafValues></_></weakClassifiers></_>
    <!-- stage 18 -->
    <_>
      <maxWeakCount>7</maxWeakCount>
      <stageThreshold>-9.8469191789627075e-01</stageThreshold>
      <weakClassifiers>
        <_>
          <internalNodes>
            0 -1 25 -209501219 1091674762 -1073741786 1485518470
            -133102660 -376774646 -209357112 -405835008</internalNodes>
          <leafValues>
            -5.5525964498519897e-01 4.4995647668838501e-01</leafValues></_>
        <_>
          <internalNodes>
            0 -1 87 -903099649 -553545341 605083091 276828423 1397244031
            2048066116 682158255 828891821</internalNodes>
          <leafValues>
            -6.0642331838607788e-01 3.9370170235633850e-01</leafValues></_>
        <_>
          <internalNodes>
            0 -1 89 -1597785833 -2080226856 -1592586155 -1982594944
            -634711039 -1408415743 1132541599 -1344409144</internalNodes>
          <leafValues>
            -6.0817444324493408e-01 3.9926975965499878e-01</leafValues></_>
        <_>
          <internalNodes>
            0 -1 30 -14856451 -2087075310 -1006567341 -599711744
            -780007204 -1065254580 -1811937062 -70593982</internalNodes>
          <leafValues>
            -5.8596789836883545e-01 4.6155068278312683e-01</leafValues></_>
        <_>
          <internalNodes>
            0 -1 78 -892353373 -2140073725 348177 1505965069 -1471604561
            76120464 322961619 -196353829</internalNodes>
          <leafValues>
            -5.0413936376571655e-01 5.3570866584777832e-01</leafValues></_>
        <_>
          <internalNodes>
            0 -1 83 1883367318 -217313193 -1996259241 -1664139175
            -264231784 -2013126526 12838090 1528811550</internalNodes>
          <leafValues>
            -6.9736415147781372e-01 4.2368322610855103e-01</leafValues></_>
        <_>
          <internalNodes>
            0 -1 107 -211606601 -289407042 -268468232 -201609358
            -413424120 234778606 -699925052 -1061212</internalNodes>
          <leafValues>
            -4.7255223989486694e-01 6.0304862260818481e-01</leafValues></_></weakClassifiers></_>
    <!-- stage 19 -->
    <_>
      <maxWeakCount>8</maxWeakCount>
      <stageThreshold>-7.9414212703704834e-01</stageThreshold>
      <weakClassifiers>
        <_>
          <internalNodes>
            0 -1 55 -1559690987 1461263887 -1929077371 -593202892
            -1928812551 -1384005614 -1405043784 -841307958</internalNodes>
          <leafValues>
            -5.4123711585998535e-01 4.6263346076011658e-01</leafValues></_>
        <_>
          <internalNodes>
            0 -1 61 118468991 1125206437 65915 -783069005 1797351684
            1062974299 -2088551572 2077969151</internalNodes>
          <leafValues>
            -6.4687991142272949e-01 3.9783453941345215e-01</leafValues></_>
        <_>
          <internalNodes>
            0 -1 19 20404623 118392066 -2130443639 1076269538 -92171634
            172194 -2012948465 -1026559785</internalNodes>
          <leafValues>
            -6.1336874961853027e-01 4.2996013164520264e-01</leafValues></_>
        <_>
          <internalNodes>
            0 -1 26 -736696736 -787262307 -1878783783 -867945915
            -510982918 -1166012416 -225834822 -7862102</internalNodes>
          <leafValues>
            -5.6347441673278809e-01 4.7075027227401733e-01</leafValues></_>
        <_>
          <internalNodes>
            0 -1 45 -737963012 1025836808 1367383704 -79687157
            -1927576167 -1719588861 -685208933 -931077238</internalNodes>
          <leafValues>
            -6.1013442277908325e-01 4.2565387487411499e-01</leafValues></_>
        <_>
          <internalNodes>
            0 -1 3 -203439906 -250593256 243564565 -57573095 -2146366212
            -359116403 172634111 2079402889</internalNodes>
          <leafValues>
            -7.5748568773269653e-01 3.4527006745338440e-01</leafValues></_>
        <_>
          <internalNodes>
            0 -1 91 788187651 526552366 -16781745 -139460807 -17068466
            2009988861 -134283601 -1156317349</internalNodes>
          <leafValues>
            -4.8348122835159302e-01 5.8478945493698120e-01</leafValues></_>
        <_>
          <internalNodes>
            0 -1 40 1271901136 -1647280127 -2146923519 -1823784573
            -2130472474 -1073708926 -1033404287 -571516555</internalNodes>
          <leafValues>
            -6.9667857885360718e-01 4.2290329933166504e-01</leafValues></_></weakClassifiers></_></stages>
  <features>
    <_>
      <rect>
        1 14 18 8</rect></_>
    <_>
      <rect>
        3 4 17 12</rect></_>
    <_>
      <rect>
        8 3 16 11</rect></_>
    <_>
      <rect>
        9 13 15 9</rect></_>
    <_>
      <rect>
        13 1 7 9</rect></_>
    <_>
      <rect>
        13 1 18 7</rect></_>
    <_>
      <rect>
        13 3 6 11</rect></_>
    <_>
      <rect>
        13 6 13 11</rect></_>
    <_>
      <rect>
        13 9 7 5</rect></_>
    <_>
      <rect>
        13 14 5 6</rect></_>
    <_>
      <rect>
        14 0 5 10</rect></_>
    <_>
      <rect>
        14 3 7 9</rect></_>
    <_>
      <rect>
        14 11 4 5</rect></_>
    <_>
      <rect>
        15 9 14 8</rect></_>
    <_>
      <rect>
        16 1 5 5</rect></_>
    <_>
      <rect>
        16 8 3 4</rect></_>
    <_>
      <rect>
        16 17 2 2</rect></_>
    <_>
      <rect>
        16 17 4 6</rect></_>
    <_>
      <rect>
        17 4 15 10</rect></_>
    <_>
      <rect>
        17 11 3 3</rect></_>
    <_>
      <rect>
        17 14 2 3</rect></_>
    <_>
      <rect>
        18 0 5 4</rect></_>
    <_>
      <rect>
        18 0 5 5</rect></_>
    <_>
      <rect>
        18 5 20 7</rect></_>
    <_>
      <rect>
        19 12 4 9</rect></_>
    <_>
      <rect>
        19 15 3 5</rect></_>
    <_>
      <rect>
        19 27 5 4</rect></_>
    <_>
      <rect>
        20 0 7 4</rect></_>
    <_>
      <rect>
        20 8 4 8</rect></_>
    <_>
      <rect>
        20 23 3 4</rect></_>
    <_>
      <rect>
        21 20 2 5</rect></_>
    <_>
      <rect>
        21 22 2 4</rect></_>
    <_>
      <rect>
        21 23 13 4</rect></_>
    <_>
      <rect>
        22 0 16 13</rect></_>
    <_>
      <rect>
        22 1 12 7</rect></_>
    <_>
      <rect>
        22 4 4 4</rect></_>
    <_>
      <rect>
        22 20 13 5</rect></_>
    <_>
      <rect>
        23 3 11 6</rect></_>
    <_>
      <rect>
        23 19 12 6</rect></_>
    <_>
      <rect>
        23 25 12 4</rect></_>
    <_>
      <rect>
        24 0 2 12</rect></_>
    <_>
      <rect>
        24 13 5 5</rect></_>
    <_>
      <rect>
        24 24 3 5</rect></_>
    <_>
      <rect>
        24 25 11 5</rect></_>
    <_>
      <rect>
        25 1 18 13</rect></_>
    <_>
      <rect>
        25 3 15 6</rect></_>
    <_>
      <rect>
        25 10 14 6</rect></_>
    <_>
      <rect>
        25 15 17 8</rect></_>
    <_>
      <rect>
        25 16 16 8</rect></_>
    <_>
      <rect>
        26 1 17 13</rect></_>
    <_>
      <rect>
        26 9 14 6</rect></_>
    <_>
      <rect>
        26 27 9 3</rect></_>
    <_>
      <rect>
        27 10 7 10</rect></_>
    <_>
      <rect>
        28 11 6 4</rect></_>
    <_>
      <rect>
        28 16 8 7</rect></_>
    <_>
      <rect>
        28 19 8 4</rect></_>
    <_>
      <rect>
        29 18 8 6</rect></_>
    <_>
      <rect>
        29 19 7 4</rect></_>
    <_>
      <rect>
        29 19 7 5</rect></_>
    <_>
      <rect>
        30 17 6 3</rect></_>
    <_>
      <rect>
        30 20 7 4</rect></_>
    <_>
      <rect>
        31 10 4 3</rect></_>
    <_>
      <rect>
        31 13 4 4</rect></_>
    <_>
      <rect>
        31 23 3 3</rect></_>
    <_>
      <rect>
        31 25 6 2</rect></_>
    <_>
      <rect>
        32 0 5 4</rect></_>
    <_>
      <rect>
        32 2 6 3</rect></_>
    <_>
      <rect>
        32 12 4 4</rect></_>
    <_>
      <rect>
        32 16 4 2</rect></_>
    <_>
      <rect>
        32 19 6 3</rect></_>
    <_>
      <rect>
        34 1 5 3</rect></_>
    <_>
      <rect>
        34 10 5 9</rect></_>
    <_>
      <rect>
        34 10 13 10</rect></_>
    <_>
      <rect>
        34 11 3 3</rect></_>
    <_>
      <rect>
        34 14 6 2</rect></_>
    <_>
      <rect>
        35 13 5 3</rect></_>
    <_>
      <rect>
        36 0 11 6</rect></_>
    <_>
      <rect>
        36 14 2 1</rect></_>
    <_>
      <rect>
        36 26 2 2</rect></_>
    <_>
      <rect>
        37 6 5 5</rect></_>
    <_>
      <rect>
        37 10 5 5</rect></_>
    <_>
      <rect>
        37 24 3 2</rect></_>
    <_>
      <rect>
        38 9 5 6</rect></_>
    <_>
      <rect>
        38 12 1 2</rect></_>
    <_>
      <rect>
        38 12 6 7</rect></_>
    <_>
      <rect>
        38 13 4 3</rect></_>
    <_>
      <rect>
        38 19 1 1</rect></_>
    <_>
      <rect>
        39 27 4 2</rect></_>
    <_>
      <rect>
        42 12 2 3</rect></_>
    <_>
      <rect>
        43 9 3 4</rect></_>
    <_>
      <rect>
        44 7 7 4</rect></_>
    <_>
      <rect>
        45 1 5 3</rect></_>
    <_>
      <rect>
        46 22 6 6</rect></_>
    <_>
      <rect>
        47 2 5 5</rect></_>
    <_>
      <rect>
        47 4 5 4</rect></_>
    <_>
      <rect>
        47 16 5 8</rect></_>
    <_>
      <rect>
        48 1 6 9</rect></_>
    <_>
      <rect>
        49 6 5 7</rect></_>
    <_>
      <rect>
        49 12 5 4</rect></_>
    <_>
      <rect>
        50 2 5 8</rect></_>
    <_>
      <rect>
        51 7 2 10</rect></_>
    <_>
      <rect>
        51 14 5 4</rect></_>
    <_>
      <rect>
        51 21 2 5</rect></_>
    <_>
      <rect>
        52 5 2 8</rect></_>
    <_>
      <rect>
        52 21 3 2</rect></_>
    <_>
      <rect>
        54 16 4 5</rect></_>
    <_>
      <rect>
        55 7 3 4</rect></_>
    <_>
      <rect>
        57 13 2 5</rect></_></features></cascade>
</opencv_storage>
