<?xml version="1.0"?>
<opencv_storage>
<cascade>
  <stageType>BOOST</stageType>
  <featureType>LBP</featureType>
  <height>40</height>
  <width>80</width>
  <stageParams>
    <boostType>GAB</boostType>
    <minHitRate>9.9900001287460327e-01</minHitRate>
    <maxFalseAlarm>5.0000000000000000e-01</maxFalseAlarm>
    <weightTrimRate>9.4999999999999996e-01</weightTrimRate>
    <maxDepth>1</maxDepth>
    <maxWeakCount>100</maxWeakCount></stageParams>
  <featureParams>
    <maxCatCount>256</maxCatCount>
    <featSize>1</featSize></featureParams>
  <stageNum>20</stageNum>
  <stages>
    <!-- stage 0 -->
    <_>
      <maxWeakCount>2</maxWeakCount>
      <stageThreshold>-5.8837924152612686e-03</stageThreshold>
      <weakClassifiers>
        <_>
          <internalNodes>
            0 -1 3 -24577 -45227 -788463589 -3997695 -1062827617
            -627054967 -7117413 -64241</internalNodes>
          <leafValues>
            -9.2079210281372070e-01 9.4550961256027222e-01</leafValues></_>
        <_>
          <internalNodes>
            0 -1 10 1427167231 -36617967 -1325383241 -181337839
            -1341480197 -82804590 -1333093697 -238583129</internalNodes>
          <leafValues>
            -9.1569674015045166e-01 9.1490828990936279e-01</leafValues></_></weakClassifiers></_>
    <!-- stage 1 -->
    <_>
      <maxWeakCount>2</maxWeakCount>
      <stageThreshold>-2.4500355124473572e-01</stageThreshold>
      <weakClassifiers>
        <_>
          <internalNodes>
            0 -1 26 -543951873 -78821873 -1312201267 -541603699
            -920135201 -1448113497 -364004149 2146429951</internalNodes>
          <leafValues>
            -9.8247808218002319e-01 8.0381470918655396e-01</leafValues></_>
        <_>
          <internalNodes>
            0 -1 18 -137889793 1903264107 1360056799 -653012013
            1587611131 -129392182 1325425403 2145385407</internalNodes>
          <leafValues>
            -9.1448283195495605e-01 7.3747456073760986e-01</leafValues></_></weakClassifiers></_>
    <!-- stage 2 -->
    <_>
      <maxWeakCount>3</maxWeakCount>
      <stageThreshold>-1.1040823459625244e+00</stageThreshold>
      <weakClassifiers>
        <_>
          <internalNodes>
            0 -1 43 -170535425 -707134767 -1811835879 -182988073
            -1920552566 -106594298 -1324832118 -1416908405</internalNodes>
          <leafValues>
            -8.7104624509811401e-01 7.5695735216140747e-01</leafValues></_>
        <_>
          <internalNodes>
            0 -1 74 -656488705 -686713645 -1069547237 -163610429
            -704470134 -377449984 -1534940482 -21038357</internalNodes>
          <leafValues>
            -8.5891503095626831e-01 6.6821253299713135e-01</leafValues></_>
        <_>
          <internalNodes>
            0 -1 53 -783315457 -44580589 -1778368355 1568916677
            -1290894913 -58290006 2013446569 2066735455</internalNodes>
          <leafValues>
            -8.8034296035766602e-01 6.2587887048721313e-01</leafValues></_></weakClassifiers></_>
    <!-- stage 3 -->
    <_>
      <maxWeakCount>3</maxWeakCount>
      <stageThreshold>-1.0394628047943115e+00</stageThreshold>
      <weakClassifiers>
        <_>
          <internalNodes>
            0 -1 68 -267283489 -711426030 285231319 -578974267
            -1342076709 -91750271 1635818171 2139858843</internalNodes>
          <leafValues>
            -8.6683738231658936e-01 6.9436997175216675e-01</leafValues></_>
        <_>
          <internalNodes>
            0 -1 36 -1189749283 -113049583 -977171041 -2911971
            -257757958 -24099396 -859780916 -858853650</internalNodes>
          <leafValues>
            -8.7753820419311523e-01 6.8003660440444946e-01</leafValues></_>
        <_>
          <internalNodes>
            0 -1 71 -768655140 -1857617485 34134162 -544112229
            -207187568 -551714798 -343696710 -72375333</internalNodes>
          <leafValues>
            -7.8068989515304565e-01 7.0491272211074829e-01</leafValues></_></weakClassifiers></_>
    <!-- stage 4 -->
    <_>
      <maxWeakCount>3</maxWeakCount>
      <stageThreshold>-1.0000549554824829e+00</stageThreshold>
      <weakClassifiers>
        <_>
          <internalNodes>
            0 -1 19 -540544001 1515962829 -805223393 -582410212
            2048449279 991893741 -670791479 -1052257</internalNodes>
          <leafValues>
            -8.2103991508483887e-01 7.2600185871124268e-01</leafValues></_>
        <_>
          <internalNodes>
            0 -1 32 -906497551 -1752514424 1354858709 -641476416
            -1047540737 -662337527 -2112625709 -7199</internalNodes>
          <leafValues>
            -8.3062833547592163e-01 6.6745597124099731e-01</leafValues></_>
        <_>
          <internalNodes>
            0 -1 77 -237374564 -617377445 -1727868660 -713174760
            -402619896 -1065254744 -1466324338 -319820058</internalNodes>
          <leafValues>
            -7.9944556951522827e-01 6.5161335468292236e-01</leafValues></_></weakClassifiers></_>
    <!-- stage 5 -->
    <_>
      <maxWeakCount>3</maxWeakCount>
      <stageThreshold>-1.1189841032028198e+00</stageThreshold>
      <weakClassifiers>
        <_>
          <internalNodes>
            0 -1 17 -536871049 -368437473 -1978249273 -538609902
            -1411804257 -1180571203 -671027201 -35977</internalNodes>
          <leafValues>
            -8.5111659765243530e-01 7.1846437454223633e-01</leafValues></_>
        <_>
          <internalNodes>
            0 -1 61 -648834883 -115752551 -1862184613 -539520045
            -1719084357 -74841976 453106623 2070612106</internalNodes>
          <leafValues>
            -8.7771552801132202e-01 6.8055450916290283e-01</leafValues></_>
        <_>
          <internalNodes>
            0 -1 39 -681845829 -82210021 -1341127768 -1617845358
            -318254657 -191410159 -1684293079 -1086604501</internalNodes>
          <leafValues>
            -8.4066826105117798e-01 6.0984808206558228e-01</leafValues></_></weakClassifiers></_>
    <!-- stage 6 -->
    <_>
      <maxWeakCount>5</maxWeakCount>
      <stageThreshold>-1.2124557495117188e+00</stageThreshold>
      <weakClassifiers>
        <_>
          <internalNodes>
            0 -1 23 -295705345 -640347941 1082246898 -104392639
            -380971297 -1467309938 -369057145 -1070857</internalNodes>
          <leafValues>
            -7.7088308334350586e-01 7.0244818925857544e-01</leafValues></_>
        <_>
          <internalNodes>
            0 -1 72 -497581849 -611589993 -1743939075 -660614887
            -1153838888 -1148550399 -1693386006 -27346469</internalNodes>
          <leafValues>
            -7.7342498302459717e-01 6.3765829801559448e-01</leafValues></_>
        <_>
          <internalNodes>
            0 -1 12 -1995525248 1065523922 -463424363 -1513825102
            -1199503109 688033970 1117162187 -309331269</internalNodes>
          <leafValues>
            -8.1241524219512939e-01 6.1208611726760864e-01</leafValues></_>
        <_>
          <internalNodes>
            0 -1 38 -237503009 -145893315 -1727857153 -136720939
            -710484054 -654210879 -1633515845 -1081355335</internalNodes>
          <leafValues>
            -8.1212818622589111e-01 6.1686807870864868e-01</leafValues></_>
        <_>
          <internalNodes>
            0 -1 54 -1252750881 -218005376 1293484315 2034565361
            1342736606 -1870298208 -1876321905 2142234827</internalNodes>
          <leafValues>
            -8.8368386030197144e-01 5.6908929347991943e-01</leafValues></_></weakClassifiers></_>
    <!-- stage 7 -->
    <_>
      <maxWeakCount>5</maxWeakCount>
      <stageThreshold>-9.9086886644363403e-01</stageThreshold>
      <weakClassifiers>
        <_>
          <internalNodes>
            0 -1 78 -156351821 -720318461 -536862689 -792215550
            -1971223408 -1995440128 -1500322918 -91571269</internalNodes>
          <leafValues>
            -7.5849944353103638e-01 7.1346706151962280e-01</leafValues></_>
        <_>
          <internalNodes>
            0 -1 48 -1416953573 -638349285 -1040039923 -49458691
            -376987489 -326582133 -937719921 -271588657</internalNodes>
          <leafValues>
            -7.7917075157165527e-01 6.3494014739990234e-01</leafValues></_>
        <_>
          <internalNodes>
            0 -1 5 -582759203 -650017981 21103630 -108407013 -357987842
            -1711241014 798623946 -72627253</internalNodes>
          <leafValues>
            -7.2093236446380615e-01 6.7359679937362671e-01</leafValues></_>
        <_>
          <internalNodes>
            0 -1 28 -2028302159 -911994478 -2139078574 -549453504
            -770977574 -1341489125 -629045081 -68187468</internalNodes>
          <leafValues>
            -7.9436457157135010e-01 5.9092950820922852e-01</leafValues></_>
        <_>
          <internalNodes>
            0 -1 84 -1751199510 -1719039584 -2122235584 -1853636224
            203587723 -1744797695 -2046648190 -1680875447</internalNodes>
          <leafValues>
            -6.8497252464294434e-01 6.7680412530899048e-01</leafValues></_></weakClassifiers></_>
    <!-- stage 8 -->
    <_>
      <maxWeakCount>4</maxWeakCount>
      <stageThreshold>-4.5154994726181030e-01</stageThreshold>
      <weakClassifiers>
        <_>
          <internalNodes>
            0 -1 60 -42216993 -648728295 -1593769507 2031587483
            -251084613 -131430263 -1098282246 2143021311</internalNodes>
          <leafValues>
            -8.3310532569885254e-01 6.0650128126144409e-01</leafValues></_>
        <_>
          <internalNodes>
            0 -1 73 -234692521 -233619081 35001681 -61664999 -758648326
            -121429080 -1307937814 -21299217</internalNodes>
          <leafValues>
            -8.4291362762451172e-01 5.2753525972366333e-01</leafValues></_>
        <_>
          <internalNodes>
            0 -1 7 -1827736594 1236173098 4243515 -978857629 -1073046885
            -2138405753 -929590529 -342885829</internalNodes>
          <leafValues>
            -6.8817281723022461e-01 6.7480146884918213e-01</leafValues></_>
        <_>
          <internalNodes>
            0 -1 40 -1988030437 -649887649 -2117025719 -601423851
            -1409179477 -1182039928 1414052357 -104206326</internalNodes>
          <leafValues>
            -7.8803932666778564e-01 5.4966753721237183e-01</leafValues></_></weakClassifiers></_>
    <!-- stage 9 -->
    <_>
      <maxWeakCount>5</maxWeakCount>
      <stageThreshold>-1.1196349859237671e+00</stageThreshold>
      <weakClassifiers>
        <_>
          <internalNodes>
            0 -1 69 -238693385 -577547117 -2096049953 -178978411
            -1865579623 -117407102 -805141873 1605044111</internalNodes>
          <leafValues>
            -8.1132078170776367e-01 5.4417836666107178e-01</leafValues></_>
        <_>
          <internalNodes>
            0 -1 20 -42997012 -704528061 -964550402 -590884705
            -771602228 -670531536 -125827858 -68427121</internalNodes>
          <leafValues>
            -7.3613327741622925e-01 5.9473478794097900e-01</leafValues></_>
        <_>
          <internalNodes>
            0 -1 30 -720662177 -1621426013 1174471503 -280805105
            -352089713 -75331443 -2121691957 -135295605</internalNodes>
          <leafValues>
            -7.0076751708984375e-01 6.3019758462905884e-01</leafValues></_>
        <_>
          <internalNodes>
            0 -1 49 1376059658 2131836939 538054744 1393133571
            -666828514 -133528824 -1073628754 -106199797</internalNodes>
          <leafValues>
            -7.0526087284088135e-01 6.4081066846847534e-01</leafValues></_>
        <_>
          <internalNodes>
            0 -1 4 -939396619 -1878926959 -1877947141 -232914916
            545323199 814252259 -1433732453 -643085621</internalNodes>
          <leafValues>
            -7.9095023870468140e-01 5.0288230180740356e-01</leafValues></_></weakClassifiers></_>
    <!-- stage 10 -->
    <_>
      <maxWeakCount>6</maxWeakCount>
      <stageThreshold>-1.7855910062789917e+00</stageThreshold>
      <weakClassifiers>
        <_>
          <internalNodes>
            0 -1 27 -1953252446 -888991710 -989822576 -1712104238
            -895346690 -1433583393 -863772469 -336078685</internalNodes>
          <leafValues>
            -7.2486770153045654e-01 5.6643354892730713e-01</leafValues></_>
        <_>
          <internalNodes>
            0 -1 37 -783946273 1976636465 -784334405 -44875775 -97925173
            -10682171 172200107 -1079263989</internalNodes>
          <leafValues>
            -7.3988324403762817e-01 5.5927431583404541e-01</leafValues></_>
        <_>
          <internalNodes>
            0 -1 67 -750043085 1406255305 1346437471 -83521319
            -502824529 1269465483 1744961179 2146421723</internalNodes>
          <leafValues>
            -8.3354800939559937e-01 4.5478427410125732e-01</leafValues></_>
        <_>
          <internalNodes>
            0 -1 89 -213708717 -251575980 -1861730238 1361121579
            167880704 444600448 -1845386108 -83369081</internalNodes>
          <leafValues>
            -6.5929001569747925e-01 6.3924425840377808e-01</leafValues></_>
        <_>
          <internalNodes>
            0 -1 14 -805396566 2012154894 -2 -59347158 2147418106
            -16793649 -1610612773 -16777606</internalNodes>
          <leafValues>
            -6.0439640283584595e-01 6.8061447143554688e-01</leafValues></_>
        <_>
          <internalNodes>
            0 -1 57 -707725351 437442523 559957123 1067049371
            -1056930495 1777190940 -1911766869 2135805323</internalNodes>
          <leafValues>
            -8.7980902194976807e-01 4.8806217312812805e-01</leafValues></_></weakClassifiers></_>
    <!-- stage 11 -->
    <_>
      <maxWeakCount>4</maxWeakCount>
      <stageThreshold>-4.6909534931182861e-01</stageThreshold>
      <weakClassifiers>
        <_>
          <internalNodes>
            0 -1 24 -2007117321 -762592114 -1056079662 -573110128
            -2096988001 -1177769841 -526662953 -67125017</internalNodes>
          <leafValues>
            -6.7766499519348145e-01 5.7014387845993042e-01</leafValues></_>
        <_>
          <internalNodes>
            0 -1 16 315852770 -507445054 1313086556 -673109520
            -1996379985 -655687522 -389316181 -8159045</internalNodes>
          <leafValues>
            -6.8876087665557861e-01 5.1557296514511108e-01</leafValues></_>
        <_>
          <internalNodes>
            0 -1 34 285333981 957437169 1280984541 -71728999 167811467
            1002375310 -1744660021 -269778737</internalNodes>
          <leafValues>
            -7.0879381895065308e-01 5.5162644386291504e-01</leafValues></_>
        <_>
          <internalNodes>
            0 -1 58 813928734 -241884748 268516371 -110294641
            -2010988374 -587186045 -536717061 2078261151</internalNodes>
          <leafValues>
            -8.4601837396621704e-01 4.8884648084640503e-01</leafValues></_></weakClassifiers></_>
    <!-- stage 12 -->
    <_>
      <maxWeakCount>6</maxWeakCount>
      <stageThreshold>-6.6703796386718750e-01</stageThreshold>
      <weakClassifiers>
        <_>
          <internalNodes>
            0 -1 75 -803946404 290188117 -2130537397 -620500095
            -98594148 -1694334333 -318532966 -75506849</internalNodes>
          <leafValues>
            -6.6839379072189331e-01 5.4609930515289307e-01</leafValues></_>
        <_>
          <internalNodes>
            0 -1 47 -786640673 -788262912 268435965 1561665539
            -368932353 -1148518007 -1979540807 1064274059</internalNodes>
          <leafValues>
            -8.1106716394424438e-01 4.8909941315650940e-01</leafValues></_>
        <_>
          <internalNodes>
            0 -1 15 -85008144 1362100591 -2147299205 -921829101
            -125501252 -150224751 -1307420484 -1618571292</internalNodes>
          <leafValues>
            -7.5869780778884888e-01 4.9396455287933350e-01</leafValues></_>
        <_>
          <internalNodes>
            0 -1 35 -1789438101 -1660878571 1367610245 -686485163
            -732916486 -1870396392 -192314228 -833689414</internalNodes>
          <leafValues>
            -7.9916864633560181e-01 4.7547918558120728e-01</leafValues></_>
        <_>
          <internalNodes>
            0 -1 9 428688793 -909195062 -1860957756 -775044086
            -2139090197 580255920 -1802467094 -83896625</internalNodes>
          <leafValues>
            -6.2190222740173340e-01 6.1110764741897583e-01</leafValues></_>
        <_>
          <internalNodes>
            0 -1 80 -1667775622 -787258537 8605084 -1790590878
            -1721507578 -377237375 -1590981718 -1111495774</internalNodes>
          <leafValues>
            -7.0797365903854370e-01 5.3872042894363403e-01</leafValues></_></weakClassifiers></_>
    <!-- stage 13 -->
    <_>
      <maxWeakCount>5</maxWeakCount>
      <stageThreshold>-9.6057641506195068e-01</stageThreshold>
      <weakClassifiers>
        <_>
          <internalNodes>
            0 -1 1 -1861604931 -116391664 1090591197 -548143087
            -1207435093 -1148714872 -2008512113 -208994132</internalNodes>
          <leafValues>
            -6.9270163774490356e-01 5.7283288240432739e-01</leafValues></_>
        <_>
          <internalNodes>
            0 -1 76 1954759247 -77623017 -2146946810 2046829834
            -1828668900 907039105 -212126790 -6302949</internalNodes>
          <leafValues>
            -6.6685181856155396e-01 5.1725018024444580e-01</leafValues></_>
        <_>
          <internalNodes>
            0 -1 13 -2111992949 -2138701694 -1056712687 -803163614
            -536164214 25297157 -166952741 -1005915990</internalNodes>
          <leafValues>
            -6.5388047695159912e-01 5.2332073450088501e-01</leafValues></_>
        <_>
          <internalNodes>
            0 -1 33 1444431952 -788324085 -1878916989 -754909165
            -16775016 -914224960 -1189850486 -71668818</internalNodes>
          <leafValues>
            -7.8037482500076294e-01 4.3944224715232849e-01</leafValues></_>
        <_>
          <internalNodes>
            0 -1 51 -256655207 -1611272415 -1212907531 -713588809
            -335761681 1576919005 -1258389633 -270849</internalNodes>
          <leafValues>
            -5.2807080745697021e-01 6.7328423261642456e-01</leafValues></_></weakClassifiers></_>
    <!-- stage 14 -->
    <_>
      <maxWeakCount>6</maxWeakCount>
      <stageThreshold>-1.6327189207077026e+00</stageThreshold>
      <weakClassifiers>
        <_>
          <internalNodes>
            0 -1 59 -1013453317 -720531305 -1878976103 -574533544
            -930308936 -108871550 -85940050 2142218891</internalNodes>
          <leafValues>
            -8.0354267358779907e-01 4.6833464503288269e-01</leafValues></_>
        <_>
          <internalNodes>
            0 -1 81 -669363809 -1825323950 285278995 -268238581
            -1072516344 155418816 -1065188449 -21040229</internalNodes>
          <leafValues>
            -6.7257028818130493e-01 5.2018475532531738e-01</leafValues></_>
        <_>
          <internalNodes>
            0 -1 25 -12860227 -2138470901 1359233037 -1735114491
            1262617784 -896958271 -397276498 -2426646</internalNodes>
          <leafValues>
            -6.1955147981643677e-01 5.6396567821502686e-01</leafValues></_>
        <_>
          <internalNodes>
            0 -1 83 -778849638 1502921172 -2130591478 -687744616
            -251534942 -805044224 -2147106366 -1410737108</internalNodes>
          <leafValues>
            -6.0745483636856079e-01 5.8246999979019165e-01</leafValues></_>
        <_>
          <internalNodes>
            0 -1 31 -799681871 -716603378 52178 -581197632 8945803
            -2138857471 -527785737 -70277691</internalNodes>
          <leafValues>
            -8.0446970462799072e-01 4.1272440552711487e-01</leafValues></_>
        <_>
          <internalNodes>
            0 -1 56 -795352927 -1447009763 -1072540139 -119304033
            -1337814581 1084362880 606232960 -1595442495</internalNodes>
          <leafValues>
            -6.1420130729675293e-01 5.9865039587020874e-01</leafValues></_></weakClassifiers></_>
    <!-- stage 15 -->
    <_>
      <maxWeakCount>5</maxWeakCount>
      <stageThreshold>-9.2558681964874268e-01</stageThreshold>
      <weakClassifiers>
        <_>
          <internalNodes>
            0 -1 50 -1457845409 1935086865 4379661 -578706293
            -1841184523 -121519704 -1983211317 -1323267</internalNodes>
          <leafValues>
            -6.3387298583984375e-01 5.5515038967132568e-01</leafValues></_>
        <_>
          <internalNodes>
            0 -1 82 -749341353 2105348273 -1862199420 -1208680337
            1126285956 -904626046 -1682969724 -522718521</internalNodes>
          <leafValues>
            -5.7339900732040405e-01 5.5428868532180786e-01</leafValues></_>
        <_>
          <internalNodes>
            0 -1 11 -100935169 -678238219 -2130362327 -2118090622
            -901712641 2120543213 -2143240028 -122433309</internalNodes>
          <leafValues>
            -6.2116760015487671e-01 5.1680618524551392e-01</leafValues></_>
        <_>
          <internalNodes>
            0 -1 45 67338447 -536821695 16941449 -1006271996 -1467419978
            -2012692472 -662129669 1854662883</internalNodes>
          <leafValues>
            -7.5974297523498535e-01 4.5067399740219116e-01</leafValues></_>
        <_>
          <internalNodes>
            0 -1 87 1402033495 -750419967 294226142 -117211135 172743384
            -771604464 185152132 -346297789</internalNodes>
          <leafValues>
            -6.0306572914123535e-01 5.7510828971862793e-01</leafValues></_></weakClassifiers></_>
    <!-- stage 16 -->
    <_>
      <maxWeakCount>6</maxWeakCount>
      <stageThreshold>-1.6930909156799316e+00</stageThreshold>
      <weakClassifiers>
        <_>
          <internalNodes>
            0 -1 66 -1777864560 -209514215 310402096 -61222607
            -1577011062 -1098907390 -1172793286 -89474165</internalNodes>
          <leafValues>
            -7.7364861965179443e-01 4.2660549283027649e-01</leafValues></_>
        <_>
          <internalNodes>
            0 -1 41 -1794489345 1359095573 58773695 1563230265
            -1706972187 -1190944640 -1023230273 2077993090</internalNodes>
          <leafValues>
            -6.9946265220642090e-01 4.3787586688995361e-01</leafValues></_>
        <_>
          <internalNodes>
            0 -1 22 -2086230368 1125036794 -1067876201 -711605530
            274229386 -64815096 -1060568865 -85032817</internalNodes>
          <leafValues>
            -7.5187677145004272e-01 4.2970231175422668e-01</leafValues></_>
        <_>
          <internalNodes>
            0 -1 62 -1061696895 -1354773195 847181747 -1237319881
            -1406210525 -168345881 -318791753 -142606345</internalNodes>
          <leafValues>
            -5.0997531414031982e-01 6.3227254152297974e-01</leafValues></_>
        <_>
          <internalNodes>
            0 -1 64 -669789801 389091477 -771745398 -570424936
            -1609850878 -1165983558 -2012501618 -524551509</internalNodes>
          <leafValues>
            -6.4460432529449463e-01 5.0280958414077759e-01</leafValues></_>
        <_>
          <internalNodes>
            0 -1 86 -745285804 -1022248917 1090572573 -181170254
            1367581358 -760708967 -2145847604 -692866557</internalNodes>
          <leafValues>
            -6.5111589431762695e-01 4.9247613549232483e-01</leafValues></_></weakClassifiers></_>
    <!-- stage 17 -->
    <_>
      <maxWeakCount>6</maxWeakCount>
      <stageThreshold>-1.6449066400527954e+00</stageThreshold>
      <weakClassifiers>
        <_>
          <internalNodes>
            0 -1 55 -2049232961 -775896621 1158849490 -707145583
            -2113630033 -1195274221 -1446075669 2135939463</internalNodes>
          <leafValues>
            -8.3032488822937012e-01 4.1604754328727722e-01</leafValues></_>
        <_>
          <internalNodes>
            0 -1 2 1361889422 1907101864 397535 -507182797 313098495
            1886060731 -1070890805 -89194293</internalNodes>
          <leafValues>
            -6.3515949249267578e-01 4.9298623204231262e-01</leafValues></_>
        <_>
          <internalNodes>
            0 -1 46 -2096166625 -216594091 -791643697 1603389517
            -1899830645 -1994268445 -238887575 -22615637</internalNodes>
          <leafValues>
            -6.3928478956222534e-01 5.0931936502456665e-01</leafValues></_>
        <_>
          <internalNodes>
            0 -1 29 -242398099 -1979596782 -1056926712 -938393581
            -770094884 -1458536317 -897433588 -106407125</internalNodes>
          <leafValues>
            -7.1086525917053223e-01 4.7948497533798218e-01</leafValues></_>
        <_>
          <internalNodes>
            0 -1 85 -7689038 -1114748800 286327216 -47632256 -1929215285
            -1953988478 1117851281 -662177472</internalNodes>
          <leafValues>
            -6.7203587293624878e-01 4.5647361874580383e-01</leafValues></_>
        <_>
          <internalNodes>
            0 -1 70 1078035463 1540456499 -780012197 -1861156733
            1621132124 -1300101110 -484275317 -1719688669</internalNodes>
          <leafValues>
            -5.3211832046508789e-01 5.8822762966156006e-01</leafValues></_></weakClassifiers></_>
    <!-- stage 18 -->
    <_>
      <maxWeakCount>7</maxWeakCount>
      <stageThreshold>-9.4479334354400635e-01</stageThreshold>
      <weakClassifiers>
        <_>
          <internalNodes>
            0 -1 44 -1413805569 1609637215 -1811349497 -645476113
            -1975416683 -1148681825 -535498341 -390534735</internalNodes>
          <leafValues>
            -6.4951318502426147e-01 4.8010161519050598e-01</leafValues></_>
        <_>
          <internalNodes>
            0 -1 6 -2127916594 1403189514 -2143288838 -84224094
            -1609397761 -533200848 -1602223617 -72621609</internalNodes>
          <leafValues>
            -6.6920536756515503e-01 4.6342226862907410e-01</leafValues></_>
        <_>
          <internalNodes>
            0 -1 89 1441783127 -1753251846 -8523815 -101982609
            -1778395442 81657566 -697309504 -82848697</internalNodes>
          <leafValues>
            -5.1707410812377930e-01 5.8261889219284058e-01</leafValues></_>
        <_>
          <internalNodes>
            0 -1 52 1099674833 -1869119102 1114257 -640823167 -510815584
            -1157103479 -1971189617 2101336782</internalNodes>
          <leafValues>
            -7.7571755647659302e-01 4.3280026316642761e-01</leafValues></_>
        <_>
          <internalNodes>
            0 -1 88 -1500188517 -1693714264 16847345 -1717452416
            1208008706 -1844928478 -2146700926 -1646589820</internalNodes>
          <leafValues>
            -6.7233180999755859e-01 4.5106545090675354e-01</leafValues></_>
        <_>
          <internalNodes>
            0 -1 63 -555751933 -1488203709 -2130388991 -593510391
            -1191161823 555753476 -804710371 -56102245</internalNodes>
          <leafValues>
            -5.7356840372085571e-01 6.0612607002258301e-01</leafValues></_>
        <_>
          <internalNodes>
            0 -1 8 -1342177282 -1459680434 -16781697 -151065858 -8449
            -1929417219 -20748 -261427998</internalNodes>
          <leafValues>
            -5.1899093389511108e-01 6.7991477251052856e-01</leafValues></_></weakClassifiers></_>
    <!-- stage 19 -->
    <_>
      <maxWeakCount>6</maxWeakCount>
      <stageThreshold>-7.1895343065261841e-01</stageThreshold>
      <weakClassifiers>
        <_>
          <internalNodes>
            0 -1 42 288363006 1595346897 -729361871 -41712248 -671035187
            -39317304 -49625074 -74276841</internalNodes>
          <leafValues>
            -7.3566877841949463e-01 4.4182389974594116e-01</leafValues></_>
        <_>
          <internalNodes>
            0 -1 0 -772210209 -1649064128 419792159 -48226400
            -2147444561 -1309832982 4246015 -76809280</internalNodes>
          <leafValues>
            -6.3252574205398560e-01 4.7357562184333801e-01</leafValues></_>
        <_>
          <internalNodes>
            0 -1 65 -225184261 -781184609 268537913 2139947013
            -2113814038 -762773368 2022279354 1975241678</internalNodes>
          <leafValues>
            -8.5108107328414917e-01 3.3504730463027954e-01</leafValues></_>
        <_>
          <internalNodes>
            0 -1 21 -1853648090 -2146208827 -988854370 390272139
            1342907354 -1723719486 -1045395445 -1884837749</internalNodes>
          <leafValues>
            -6.7031383514404297e-01 4.9071267247200012e-01</leafValues></_>
        <_>
          <internalNodes>
            0 -1 79 1376207901 1882435920 34852892 1968275810 286504272
            1124112785 -134039336 -83633333</internalNodes>
          <leafValues>
            -6.4300274848937988e-01 4.9738776683807373e-01</leafValues></_>
        <_>
          <internalNodes>
            0 -1 90 -730344289 -1861664633 294994206 -1874378687
            -804813677 -519897082 -796204350 -288966007</internalNodes>
          <leafValues>
            -5.6821149587631226e-01 5.6714689731597900e-01</leafValues></_></weakClassifiers></_></stages>
  <features>
    <_>
      <rect>
        0 2 19 9</rect></_>
    <_>
      <rect>
        1 14 26 2</rect></_>
    <_>
      <rect>
        6 1 13 5</rect></_>
    <_>
      <rect>
        9 2 14 12</rect></_>
    <_>
      <rect>
        9 3 14 12</rect></_>
    <_>
      <rect>
        9 10 13 10</rect></_>
    <_>
      <rect>
        13 8 6 5</rect></_>
    <_>
      <rect>
        14 0 6 10</rect></_>
    <_>
      <rect>
        14 10 5 10</rect></_>
    <_>
      <rect>
        15 8 6 4</rect></_>
    <_>
      <rect>
        16 6 15 5</rect></_>
    <_>
      <rect>
        16 13 16 9</rect></_>
    <_>
      <rect>
        17 0 6 6</rect></_>
    <_>
      <rect>
        17 14 2 4</rect></_>
    <_>
      <rect>
        18 2 3 11</rect></_>
    <_>
      <rect>
        18 25 6 5</rect></_>
    <_>
      <rect>
        19 1 10 4</rect></_>
    <_>
      <rect>
        19 2 9 10</rect></_>
    <_>
      <rect>
        19 13 9 7</rect></_>
    <_>
      <rect>
        19 14 14 7</rect></_>
    <_>
      <rect>
        19 19 4 6</rect></_>
    <_>
      <rect>
        20 0 10 4</rect></_>
    <_>
      <rect>
        20 1 5 6</rect></_>
    <_>
      <rect>
        20 11 7 3</rect></_>
    <_>
      <rect>
        20 12 5 3</rect></_>
    <_>
      <rect>
        20 17 3 7</rect></_>
    <_>
      <rect>
        21 6 13 8</rect></_>
    <_>
      <rect>
        22 1 8 4</rect></_>
    <_>
      <rect>
        22 6 5 3</rect></_>
    <_>
      <rect>
        22 20 2 4</rect></_>
    <_>
      <rect>
        23 7 12 3</rect></_>
    <_>
      <rect>
        23 9 4 3</rect></_>
    <_>
      <rect>
        24 8 3 5</rect></_>
    <_>
      <rect>
        24 24 3 4</rect></_>
    <_>
      <rect>
        25 22 12 5</rect></_>
    <_>
      <rect>
        26 3 18 9</rect></_>
    <_>
      <rect>
        26 4 18 8</rect></_>
    <_>
      <rect>
        26 5 17 11</rect></_>
    <_>
      <rect>
        28 1 15 13</rect></_>
    <_>
      <rect>
        28 7 16 11</rect></_>
    <_>
      <rect>
        29 17 7 6</rect></_>
    <_>
      <rect>
        29 19 3 1</rect></_>
    <_>
      <rect>
        29 19 9 6</rect></_>
    <_>
      <rect>
        30 3 14 12</rect></_>
    <_>
      <rect>
        30 16 8 6</rect></_>
    <_>
      <rect>
        30 18 3 2</rect></_>
    <_>
      <rect>
        30 18 7 4</rect></_>
    <_>
      <rect>
        31 17 4 1</rect></_>
    <_>
      <rect>
        31 18 6 5</rect></_>
    <_>
      <rect>
        33 0 10 4</rect></_>
    <_>
      <rect>
        33 17 7 5</rect></_>
    <_>
      <rect>
        33 25 5 4</rect></_>
    <_>
      <rect>
        34 13 4 3</rect></_>
    <_>
      <rect>
        34 15 3 2</rect></_>
    <_>
      <rect>
        34 16 3 2</rect></_>
    <_>
      <rect>
        35 17 3 2</rect></_>
    <_>
      <rect>
        35 28 3 2</rect></_>
    <_>
      <rect>
        36 10 8 10</rect></_>
    <_>
      <rect>
        36 15 4 2</rect></_>
    <_>
      <rect>
        36 18 3 1</rect></_>
    <_>
      <rect>
        37 15 2 1</rect></_>
    <_>
      <rect>
        37 17 4 1</rect></_>
    <_>
      <rect>
        37 24 2 2</rect></_>
    <_>
      <rect>
        38 26 2 2</rect></_>
    <_>
      <rect>
        39 5 7 2</rect></_>
    <_>
      <rect>
        39 15 2 1</rect></_>
    <_>
      <rect>
        40 9 6 2</rect></_>
    <_>
      <rect>
        40 14 2 2</rect></_>
    <_>
      <rect>
        40 16 2 1</rect></_>
    <_>
      <rect>
        42 18 2 1</rect></_>
    <_>
      <rect>
        44 0 5 3</rect></_>
    <_>
      <rect>
        44 1 6 6</rect></_>
    <_>
      <rect>
        44 7 4 3</rect></_>
    <_>
      <rect>
        44 7 4 4</rect></_>
    <_>
      <rect>
        45 7 4 4</rect></_>
    <_>
      <rect>
        47 0 5 7</rect></_>
    <_>
      <rect>
        47 6 5 4</rect></_>
    <_>
      <rect>
        48 7 6 7</rect></_>
    <_>
      <rect>
        48 9 3 3</rect></_>
    <_>
      <rect>
        50 3 4 5</rect></_>
    <_>
      <rect>
        50 6 5 10</rect></_>
    <_>
      <rect>
        51 8 2 4</rect></_>
    <_>
      <rect>
        51 11 6 4</rect></_>
    <_>
      <rect>
        51 13 4 6</rect></_>
    <_>
      <rect>
        51 18 2 6</rect></_>
    <_>
      <rect>
        51 22 4 5</rect></_>
    <_>
      <rect>
        52 4 4 7</rect></_>
    <_>
      <rect>
        52 8 3 3</rect></_>
    <_>
      <rect>
        53 23 2 4</rect></_>
    <_>
      <rect>
        54 11 3 3</rect></_>
    <_>
      <rect>
        54 14 2 3</rect></_></features></cascade>
</opencv_storage>
